digraph Tree {
node [shape=box, style="rounded", color="black", fontname=helvetica] ;
edge [fontname=helvetica] ;
0 [label="Processing Method_Unknown <= 0.5\nmse = 0.3\nsamples = 657\nvalue = 7.7"] ;
1 [label="Sweetness <= 7.3\nmse = 0.3\nsamples = 571\nvalue = 7.8"] ;
0 -> 1 [labeldistance=2.5, labelangle=45, headlabel="True"] ;
2 [label="mse = 0.2\nsamples = 7\nvalue = 7.9"] ;
1 -> 2 ;
3 [label="Category One Defects <= 0.5\nmse = 0.3\nsamples = 564\nvalue = 7.7"] ;
1 -> 3 ;
4 [label="Processing Method_Semi-washed / Semi-pulped <= 0.5\nmse = 0.3\nsamples = 477\nvalue = 7.8"] ;
3 -> 4 ;
5 [label="Aftertaste <= 6.4\nmse = 0.3\nsamples = 450\nvalue = 7.8"] ;
4 -> 5 ;
6 [label="mse = 1.5\nsamples = 9\nvalue = 7.0"] ;
5 -> 6 ;
7 [label="Color_Green <= 0.5\nmse = 0.2\nsamples = 441\nvalue = 7.8"] ;
5 -> 7 ;
8 [label="Clean Cup <= 9.7\nmse = 0.2\nsamples = 120\nvalue = 7.7"] ;
7 -> 8 ;
9 [label="mse = 0.2\nsamples = 5\nvalue = 8.0"] ;
8 -> 9 ;
10 [label="Moisture <= 13.5\nmse = 0.2\nsamples = 115\nvalue = 7.7"] ;
8 -> 10 ;
11 [label="Aftertaste <= 7.5\nmse = 0.2\nsamples = 110\nvalue = 7.7"] ;
10 -> 11 ;
12 [label="Color_Unknown <= 0.5\nmse = 0.2\nsamples = 50\nvalue = 7.9"] ;
11 -> 12 ;
13 [label="Aroma <= 7.6\nmse = 0.2\nsamples = 33\nvalue = 8.0"] ;
12 -> 13 ;
14 [label="mse = 0.2\nsamples = 25\nvalue = 8.1"] ;
13 -> 14 ;
15 [label="mse = 0.1\nsamples = 8\nvalue = 7.8"] ;
13 -> 15 ;
16 [label="Body <= 7.3\nmse = 0.2\nsamples = 17\nvalue = 7.7"] ;
12 -> 16 ;
17 [label="mse = 0.2\nsamples = 6\nvalue = 7.7"] ;
16 -> 17 ;
18 [label="Processing Method_Washed / Wet <= 0.5\nmse = 0.2\nsamples = 11\nvalue = 7.6"] ;
16 -> 18 ;
19 [label="mse = 0.2\nsamples = 5\nvalue = 7.6"] ;
18 -> 19 ;
20 [label="mse = 0.3\nsamples = 6\nvalue = 7.6"] ;
18 -> 20 ;
21 [label="Cupper Points <= 7.5\nmse = 0.2\nsamples = 60\nvalue = 7.6"] ;
11 -> 21 ;
22 [label="Color_Bluish-Green <= 0.5\nmse = 0.2\nsamples = 10\nvalue = 7.2"] ;
21 -> 22 ;
23 [label="mse = 0.4\nsamples = 5\nvalue = 7.4"] ;
22 -> 23 ;
24 [label="mse = 0.1\nsamples = 5\nvalue = 7.1"] ;
22 -> 24 ;
25 [label="Flavor <= 7.6\nmse = 0.2\nsamples = 50\nvalue = 7.7"] ;
21 -> 25 ;
26 [label="Color_Bluish-Green <= 0.5\nmse = 0.2\nsamples = 12\nvalue = 7.7"] ;
25 -> 26 ;
27 [label="mse = 0.2\nsamples = 6\nvalue = 7.7"] ;
26 -> 27 ;
28 [label="mse = 0.2\nsamples = 6\nvalue = 7.6"] ;
26 -> 28 ;
29 [label="Flavor <= 7.7\nmse = 0.1\nsamples = 38\nvalue = 7.8"] ;
25 -> 29 ;
30 [label="mse = 0.2\nsamples = 6\nvalue = 7.9"] ;
29 -> 30 ;
31 [label="Aftertaste <= 7.7\nmse = 0.1\nsamples = 32\nvalue = 7.8"] ;
29 -> 31 ;
32 [label="Aroma <= 7.9\nmse = 0.2\nsamples = 11\nvalue = 7.7"] ;
31 -> 32 ;
33 [label="mse = 0.2\nsamples = 6\nvalue = 7.6"] ;
32 -> 33 ;
34 [label="mse = 0.1\nsamples = 5\nvalue = 7.8"] ;
32 -> 34 ;
35 [label="Cupper Points <= 7.9\nmse = 0.1\nsamples = 21\nvalue = 7.8"] ;
31 -> 35 ;
36 [label="mse = 0.1\nsamples = 6\nvalue = 7.9"] ;
35 -> 36 ;
37 [label="Aftertaste <= 8.2\nmse = 0.1\nsamples = 15\nvalue = 7.8"] ;
35 -> 37 ;
38 [label="mse = 0.1\nsamples = 10\nvalue = 7.7"] ;
37 -> 38 ;
39 [label="mse = 0.1\nsamples = 5\nvalue = 7.8"] ;
37 -> 39 ;
40 [label="mse = 0.2\nsamples = 5\nvalue = 7.5"] ;
10 -> 40 ;
41 [label="Moisture <= 10.5\nmse = 0.3\nsamples = 321\nvalue = 7.8"] ;
7 -> 41 ;
42 [label="Balance <= 7.5\nmse = 0.3\nsamples = 118\nvalue = 7.7"] ;
41 -> 42 ;
43 [label="mse = 0.5\nsamples = 27\nvalue = 7.6"] ;
42 -> 43 ;
44 [label="Acidity <= 8.0\nmse = 0.2\nsamples = 91\nvalue = 7.8"] ;
42 -> 44 ;
45 [label="quality_score <= 83.9\nmse = 0.2\nsamples = 83\nvalue = 7.7"] ;
44 -> 45 ;
46 [label="Total Cup Points <= 83.4\nmse = 0.2\nsamples = 60\nvalue = 7.8"] ;
45 -> 46 ;
47 [label="Category Two Defects <= 0.5\nmse = 0.2\nsamples = 47\nvalue = 7.7"] ;
46 -> 47 ;
48 [label="mse = 0.1\nsamples = 8\nvalue = 7.9"] ;
47 -> 48 ;
49 [label="Clean Cup <= 9.7\nmse = 0.2\nsamples = 39\nvalue = 7.6"] ;
47 -> 49 ;
50 [label="mse = 0.1\nsamples = 5\nvalue = 8.2"] ;
49 -> 50 ;
51 [label="Acidity <= 7.6\nmse = 0.2\nsamples = 34\nvalue = 7.6"] ;
49 -> 51 ;
52 [label="Acidity <= 7.5\nmse = 0.2\nsamples = 23\nvalue = 7.5"] ;
51 -> 52 ;
53 [label="mse = 0.1\nsamples = 10\nvalue = 7.7"] ;
52 -> 53 ;
54 [label="Category Two Defects <= 2.5\nmse = 0.2\nsamples = 13\nvalue = 7.4"] ;
52 -> 54 ;
55 [label="mse = 0.2\nsamples = 7\nvalue = 7.5"] ;
54 -> 55 ;
56 [label="mse = 0.3\nsamples = 6\nvalue = 7.4"] ;
54 -> 56 ;
57 [label="Moisture <= 5.0\nmse = 0.3\nsamples = 11\nvalue = 7.7"] ;
51 -> 57 ;
58 [label="mse = 0.3\nsamples = 6\nvalue = 7.8"] ;
57 -> 58 ;
59 [label="mse = 0.2\nsamples = 5\nvalue = 7.7"] ;
57 -> 59 ;
60 [label="Processing Method_Natural / Dry <= 0.5\nmse = 0.1\nsamples = 13\nvalue = 8.0"] ;
46 -> 60 ;
61 [label="mse = 0.1\nsamples = 8\nvalue = 8.1"] ;
60 -> 61 ;
62 [label="mse = 0.1\nsamples = 5\nvalue = 7.9"] ;
60 -> 62 ;
63 [label="Acidity <= 7.7\nmse = 0.1\nsamples = 23\nvalue = 7.6"] ;
45 -> 63 ;
64 [label="mse = 0.2\nsamples = 6\nvalue = 7.5"] ;
63 -> 64 ;
65 [label="Balance <= 7.8\nmse = 0.1\nsamples = 17\nvalue = 7.6"] ;
63 -> 65 ;
66 [label="quality_score <= 84.2\nmse = 0.1\nsamples = 11\nvalue = 7.6"] ;
65 -> 66 ;
67 [label="mse = 0.2\nsamples = 6\nvalue = 7.6"] ;
66 -> 67 ;
68 [label="mse = 0.1\nsamples = 5\nvalue = 7.7"] ;
66 -> 68 ;
69 [label="mse = 0.2\nsamples = 6\nvalue = 7.6"] ;
65 -> 69 ;
70 [label="mse = 0.3\nsamples = 8\nvalue = 8.1"] ;
44 -> 70 ;
71 [label="Processing Method_Washed / Wet <= 0.5\nmse = 0.2\nsamples = 203\nvalue = 7.8"] ;
41 -> 71 ;
72 [label="Acidity <= 7.5\nmse = 0.3\nsamples = 46\nvalue = 7.9"] ;
71 -> 72 ;
73 [label="quality_score <= 81.0\nmse = 0.2\nsamples = 21\nvalue = 8.0"] ;
72 -> 73 ;
74 [label="mse = 0.1\nsamples = 6\nvalue = 8.3"] ;
73 -> 74 ;
75 [label="Body <= 7.5\nmse = 0.2\nsamples = 15\nvalue = 7.9"] ;
73 -> 75 ;
76 [label="Balance <= 7.5\nmse = 0.2\nsamples = 10\nvalue = 8.0"] ;
75 -> 76 ;
77 [label="mse = 0.1\nsamples = 5\nvalue = 7.9"] ;
76 -> 77 ;
78 [label="mse = 0.2\nsamples = 5\nvalue = 8.1"] ;
76 -> 78 ;
79 [label="mse = 0.1\nsamples = 5\nvalue = 7.6"] ;
75 -> 79 ;
80 [label="mse = 0.4\nsamples = 25\nvalue = 7.8"] ;
72 -> 80 ;
81 [label="Flavor <= 7.8\nmse = 0.2\nsamples = 157\nvalue = 7.8"] ;
71 -> 81 ;
82 [label="Clean Cup <= 9.7\nmse = 0.2\nsamples = 139\nvalue = 7.8"] ;
81 -> 82 ;
83 [label="Category Two Defects <= 7.5\nmse = 0.1\nsamples = 14\nvalue = 7.7"] ;
82 -> 83 ;
84 [label="mse = 0.2\nsamples = 9\nvalue = 7.6"] ;
83 -> 84 ;
85 [label="mse = 0.1\nsamples = 5\nvalue = 7.8"] ;
83 -> 85 ;
86 [label="Cupper Points <= 7.5\nmse = 0.2\nsamples = 125\nvalue = 7.8"] ;
82 -> 86 ;
87 [label="Category Two Defects <= 10.0\nmse = 0.2\nsamples = 74\nvalue = 7.9"] ;
86 -> 87 ;
88 [label="Cupper Points <= 7.0\nmse = 0.2\nsamples = 66\nvalue = 7.9"] ;
87 -> 88 ;
89 [label="mse = 0.1\nsamples = 7\nvalue = 8.0"] ;
88 -> 89 ;
90 [label="Total Cup Points <= 81.6\nmse = 0.2\nsamples = 59\nvalue = 7.9"] ;
88 -> 90 ;
91 [label="Flavor <= 7.3\nmse = 0.1\nsamples = 32\nvalue = 7.8"] ;
90 -> 91 ;
92 [label="Category Two Defects <= 0.5\nmse = 0.2\nsamples = 14\nvalue = 7.7"] ;
91 -> 92 ;
93 [label="mse = 0.1\nsamples = 6\nvalue = 7.5"] ;
92 -> 93 ;
94 [label="mse = 0.2\nsamples = 8\nvalue = 7.8"] ;
92 -> 94 ;
95 [label="Flavor <= 7.4\nmse = 0.1\nsamples = 18\nvalue = 7.9"] ;
91 -> 95 ;
96 [label="mse = 0.1\nsamples = 9\nvalue = 8.0"] ;
95 -> 96 ;
97 [label="mse = 0.1\nsamples = 9\nvalue = 7.8"] ;
95 -> 97 ;
98 [label="Category Two Defects <= 2.5\nmse = 0.2\nsamples = 27\nvalue = 8.0"] ;
90 -> 98 ;
99 [label="Cupper Points <= 7.3\nmse = 0.1\nsamples = 18\nvalue = 8.0"] ;
98 -> 99 ;
100 [label="mse = 0.0\nsamples = 5\nvalue = 8.2"] ;
99 -> 100 ;
101 [label="Category Two Defects <= 0.5\nmse = 0.1\nsamples = 13\nvalue = 8.0"] ;
99 -> 101 ;
102 [label="mse = 0.1\nsamples = 5\nvalue = 8.1"] ;
101 -> 102 ;
103 [label="mse = 0.1\nsamples = 8\nvalue = 7.9"] ;
101 -> 103 ;
104 [label="mse = 0.3\nsamples = 9\nvalue = 7.8"] ;
98 -> 104 ;
105 [label="mse = 0.2\nsamples = 8\nvalue = 7.6"] ;
87 -> 105 ;
106 [label="Balance <= 7.5\nmse = 0.2\nsamples = 51\nvalue = 7.8"] ;
86 -> 106 ;
107 [label="Total Cup Points <= 82.0\nmse = 0.1\nsamples = 10\nvalue = 7.9"] ;
106 -> 107 ;
108 [label="mse = 0.1\nsamples = 5\nvalue = 8.0"] ;
107 -> 108 ;
109 [label="mse = 0.1\nsamples = 5\nvalue = 7.9"] ;
107 -> 109 ;
110 [label="Flavor <= 7.7\nmse = 0.2\nsamples = 41\nvalue = 7.7"] ;
106 -> 110 ;
111 [label="Acidity <= 7.5\nmse = 0.2\nsamples = 32\nvalue = 7.8"] ;
110 -> 111 ;
112 [label="mse = 0.2\nsamples = 12\nvalue = 7.6"] ;
111 -> 112 ;
113 [label="Aroma <= 7.6\nmse = 0.2\nsamples = 20\nvalue = 7.8"] ;
111 -> 113 ;
114 [label="mse = 0.3\nsamples = 9\nvalue = 7.7"] ;
113 -> 114 ;
115 [label="Moisture <= 11.5\nmse = 0.1\nsamples = 11\nvalue = 8.0"] ;
113 -> 115 ;
116 [label="mse = 0.0\nsamples = 6\nvalue = 8.0"] ;
115 -> 116 ;
117 [label="mse = 0.3\nsamples = 5\nvalue = 8.2"] ;
115 -> 117 ;
118 [label="mse = 0.2\nsamples = 9\nvalue = 7.6"] ;
110 -> 118 ;
119 [label="Aftertaste <= 7.6\nmse = 0.2\nsamples = 18\nvalue = 8.0"] ;
81 -> 119 ;
120 [label="mse = 0.1\nsamples = 6\nvalue = 8.1"] ;
119 -> 120 ;
121 [label="Flavor <= 7.9\nmse = 0.3\nsamples = 12\nvalue = 7.9"] ;
119 -> 121 ;
122 [label="mse = 0.2\nsamples = 5\nvalue = 7.7"] ;
121 -> 122 ;
123 [label="mse = 0.2\nsamples = 7\nvalue = 8.0"] ;
121 -> 123 ;
124 [label="Body <= 7.5\nmse = 0.2\nsamples = 27\nvalue = 7.9"] ;
4 -> 124 ;
125 [label="mse = 0.2\nsamples = 8\nvalue = 8.1"] ;
124 -> 125 ;
126 [label="mse = 0.1\nsamples = 19\nvalue = 7.9"] ;
124 -> 126 ;
127 [label="Uniformity <= 9.7\nmse = 0.2\nsamples = 87\nvalue = 7.7"] ;
3 -> 127 ;
128 [label="Processing Method_Natural / Dry <= 0.5\nmse = 0.3\nsamples = 17\nvalue = 7.5"] ;
127 -> 128 ;
129 [label="mse = 0.2\nsamples = 10\nvalue = 7.6"] ;
128 -> 129 ;
130 [label="mse = 0.3\nsamples = 7\nvalue = 7.4"] ;
128 -> 130 ;
131 [label="Aroma <= 7.9\nmse = 0.2\nsamples = 70\nvalue = 7.7"] ;
127 -> 131 ;
132 [label="quality_score <= 82.1\nmse = 0.2\nsamples = 61\nvalue = 7.7"] ;
131 -> 132 ;
133 [label="Moisture <= 10.5\nmse = 0.2\nsamples = 25\nvalue = 7.5"] ;
132 -> 133 ;
134 [label="mse = 0.2\nsamples = 6\nvalue = 7.3"] ;
133 -> 134 ;
135 [label="Cupper Points <= 7.0\nmse = 0.2\nsamples = 19\nvalue = 7.7"] ;
133 -> 135 ;
136 [label="mse = 0.3\nsamples = 5\nvalue = 8.0"] ;
135 -> 136 ;
137 [label="mse = 0.1\nsamples = 14\nvalue = 7.6"] ;
135 -> 137 ;
138 [label="Cupper Points <= 7.8\nmse = 0.2\nsamples = 36\nvalue = 7.7"] ;
132 -> 138 ;
139 [label="quality_score <= 82.3\nmse = 0.2\nsamples = 31\nvalue = 7.8"] ;
138 -> 139 ;
140 [label="mse = 0.0\nsamples = 5\nvalue = 8.1"] ;
139 -> 140 ;
141 [label="Body <= 7.6\nmse = 0.2\nsamples = 26\nvalue = 7.8"] ;
139 -> 141 ;
142 [label="mse = 0.2\nsamples = 14\nvalue = 7.5"] ;
141 -> 142 ;
143 [label="Category One Defects <= 1.5\nmse = 0.1\nsamples = 12\nvalue = 8.0"] ;
141 -> 143 ;
144 [label="mse = 0.1\nsamples = 6\nvalue = 7.8"] ;
143 -> 144 ;
145 [label="mse = 0.1\nsamples = 6\nvalue = 8.1"] ;
143 -> 145 ;
146 [label="mse = 0.3\nsamples = 5\nvalue = 7.3"] ;
138 -> 146 ;
147 [label="mse = 0.2\nsamples = 9\nvalue = 7.8"] ;
131 -> 147 ;
148 [label="Acidity <= 8.0\nmse = 0.4\nsamples = 86\nvalue = 7.6"] ;
0 -> 148 [labeldistance=2.5, labelangle=-45, headlabel="False"] ;
149 [label="Body <= 7.6\nmse = 0.3\nsamples = 79\nvalue = 7.6"] ;
148 -> 149 ;
150 [label="mse = 0.2\nsamples = 49\nvalue = 7.7"] ;
149 -> 150 ;
151 [label="Flavor <= 7.9\nmse = 0.4\nsamples = 30\nvalue = 7.5"] ;
149 -> 151 ;
152 [label="quality_score <= 83.5\nmse = 0.4\nsamples = 19\nvalue = 7.7"] ;
151 -> 152 ;
153 [label="mse = 0.3\nsamples = 12\nvalue = 7.5"] ;
152 -> 153 ;
154 [label="mse = 0.1\nsamples = 7\nvalue = 8.2"] ;
152 -> 154 ;
155 [label="Aftertaste <= 7.9\nmse = 0.4\nsamples = 11\nvalue = 7.2"] ;
151 -> 155 ;
156 [label="mse = 0.5\nsamples = 6\nvalue = 7.2"] ;
155 -> 156 ;
157 [label="mse = 0.1\nsamples = 5\nvalue = 7.2"] ;
155 -> 157 ;
158 [label="mse = 1.3\nsamples = 7\nvalue = 6.9"] ;
148 -> 158 ;
}